<?xml version="1.0"?>
<opencv_storage>
<stage2>
  <maxWeakCount>10</maxWeakCount>
  <stageThreshold>-1.0875171422958374e+00</stageThreshold>
  <weakClassifiers>
    <_>
      <internalNodes>
        0 -1 74286 -1.0547690093517303e-01</internalNodes>
      <leafValues>
        -4.4600939750671387e-01 7.6227390766143799e-01</leafValues></_>
    <_>
      <internalNodes>
        0 -1 36110 4.2627282440662384e-02</internalNodes>
      <leafValues>
        -7.8811019659042358e-01 5.2892333269119263e-01</leafValues></_>
    <_>
      <internalNodes>
        0 -1 161891 3.0671595595777035e-03</internalNodes>
      <leafValues>
        -4.4946432113647461e-01 6.5123093128204346e-01</leafValues></_>
    <_>
      <internalNodes>
        0 -1 101490 7.3817837983369827e-03</internalNodes>
      <leafValues>
        -7.5859522819519043e-01 3.3107873797416687e-01</leafValues></_>
    <_>
      <internalNodes>
        0 -1 118118 1.8623404204845428e-02</internalNodes>
      <leafValues>
        -6.6950058937072754e-01 3.8947078585624695e-01</leafValues></_>
    <_>
      <internalNodes>
        0 -1 35080 -4.9345381557941437e-03</internalNodes>
      <leafValues>
        3.8411903381347656e-01 -6.6356807947158813e-01</leafValues></_>
    <_>
      <internalNodes>
        0 -1 25710 -7.8068831935524940e-03</internalNodes>
      <leafValues>
        8.1661820411682129e-01 -3.6017295718193054e-01</leafValues></_>
    <_>
      <internalNodes>
        0 -1 13045 7.3269596323370934e-03</internalNodes>
      <leafValues>
        -2.8362396359443665e-01 7.0848643779754639e-01</leafValues></_>
    <_>
      <internalNodes>
        0 -1 39462 -1.4145180583000183e-02</internalNodes>
      <leafValues>
        5.8925300836563110e-01 -3.9253637194633484e-01</leafValues></_>
    <_>
      <internalNodes>
        0 -1 152456 1.9238472450524569e-03</internalNodes>
      <leafValues>
        -7.2340428829193115e-01 3.4609511494636536e-01</leafValues></_></weakClassifiers></stage2>
</opencv_storage>
