<?xml version="1.0"?>
<opencv_storage>
<stage6>
  <maxWeakCount>19</maxWeakCount>
  <stageThreshold>-1.1234594583511353e+00</stageThreshold>
  <weakClassifiers>
    <_>
      <internalNodes>
        0 -1 95316 -1.2628380209207535e-02</internalNodes>
      <leafValues>
        7.1951222419738770e-01 -5.0000000000000000e-01</leafValues></_>
    <_>
      <internalNodes>
        0 -1 6935 -1.7714403802528977e-03</internalNodes>
      <leafValues>
        5.7497084140777588e-01 -4.7714862227439880e-01</leafValues></_>
    <_>
      <internalNodes>
        0 -1 67068 2.3786116391420364e-02</internalNodes>
      <leafValues>
        -5.5161279439926147e-01 3.8536113500595093e-01</leafValues></_>
    <_>
      <internalNodes>
        0 -1 68629 1.2937091290950775e-02</internalNodes>
      <leafValues>
        -3.1973105669021606e-01 6.6150373220443726e-01</leafValues></_>
    <_>
      <internalNodes>
        0 -1 157357 -2.2886537481099367e-03</internalNodes>
      <leafValues>
        8.4685182571411133e-01 -2.4672755599021912e-01</leafValues></_>
    <_>
      <internalNodes>
        0 -1 153645 1.0699432343244553e-02</internalNodes>
      <leafValues>
        -2.0367656648159027e-01 7.7547675371170044e-01</leafValues></_>
    <_>
      <internalNodes>
        0 -1 26527 2.9901432991027832e-01</internalNodes>
      <leafValues>
        2.5460702180862427e-01 -9.2433702945709229e-01</leafValues></_>
    <_>
      <internalNodes>
        0 -1 24447 -1.5358808450400829e-02</internalNodes>
      <leafValues>
        -2.5827506184577942e-01 7.5992417335510254e-01</leafValues></_>
    <_>
      <internalNodes>
        0 -1 89175 -2.5508906692266464e-02</internalNodes>
      <leafValues>
        5.9595358371734619e-01 -2.7551588416099548e-01</leafValues></_>
    <_>
      <internalNodes>
        0 -1 36606 -5.2931997925043106e-04</internalNodes>
      <leafValues>
        7.4381124973297119e-01 -2.2689966857433319e-01</leafValues></_>
    <_>
      <internalNodes>
        0 -1 115146 -2.1492512896656990e-02</internalNodes>
      <leafValues>
        3.7693428993225098e-01 -4.5095068216323853e-01</leafValues></_>
    <_>
      <internalNodes>
        0 -1 153696 -9.5706628635525703e-03</internalNodes>
      <leafValues>
        4.4792014360427856e-01 -3.4149393439292908e-01</leafValues></_>
    <_>
      <internalNodes>
        0 -1 152239 -1.2724782573059201e-04</internalNodes>
      <leafValues>
        5.0939404964447021e-01 -2.5781577825546265e-01</leafValues></_>
    <_>
      <internalNodes>
        0 -1 154868 -7.5167114846408367e-04</internalNodes>
      <leafValues>
        5.6820815801620483e-01 -2.4897025525569916e-01</leafValues></_>
    <_>
      <internalNodes>
        0 -1 135138 -9.7739230841398239e-04</internalNodes>
      <leafValues>
        -7.1205586194992065e-01 2.3214842379093170e-01</leafValues></_>
    <_>
      <internalNodes>
        0 -1 65594 -4.1009858250617981e-02</internalNodes>
      <leafValues>
        -4.0164020657539368e-01 4.3204814195632935e-01</leafValues></_>
    <_>
      <internalNodes>
        0 -1 122991 -1.1124012991786003e-02</internalNodes>
      <leafValues>
        2.4486096203327179e-01 -6.8283087015151978e-01</leafValues></_>
    <_>
      <internalNodes>
        0 -1 114423 -3.7355693057179451e-03</internalNodes>
      <leafValues>
        6.2609106302261353e-01 -3.5412806272506714e-01</leafValues></_>
    <_>
      <internalNodes>
        0 -1 90289 6.3948854804039001e-03</internalNodes>
      <leafValues>
        -2.5304159522056580e-01 6.6165274381637573e-01</leafValues></_></weakClassifiers></stage6>
</opencv_storage>
