<?xml version="1.0"?>
<opencv_storage>
<stage9>
  <maxWeakCount>24</maxWeakCount>
  <stageThreshold>-8.1863480806350708e-01</stageThreshold>
  <weakClassifiers>
    <_>
      <internalNodes>
        0 -1 101664 -2.7596756815910339e-01</internalNodes>
      <leafValues>
        -4.8872181773185730e-01 5.6745183467864990e-01</leafValues></_>
    <_>
      <internalNodes>
        0 -1 88064 2.1550925448536873e-02</internalNodes>
      <leafValues>
        -2.1401365101337433e-01 6.4305210113525391e-01</leafValues></_>
    <_>
      <internalNodes>
        0 -1 25732 -2.7361809043213725e-04</internalNodes>
      <leafValues>
        3.3482459187507629e-01 -4.4143754243850708e-01</leafValues></_>
    <_>
      <internalNodes>
        0 -1 31412 -1.0317251086235046e-02</internalNodes>
      <leafValues>
        4.7730171680450439e-01 -2.8281530737876892e-01</leafValues></_>
    <_>
      <internalNodes>
        0 -1 161561 -5.0662830471992493e-03</internalNodes>
      <leafValues>
        5.5980974435806274e-01 -2.4103133380413055e-01</leafValues></_>
    <_>
      <internalNodes>
        0 -1 161728 1.1024950072169304e-02</internalNodes>
      <leafValues>
        -1.6030189394950867e-01 7.5948822498321533e-01</leafValues></_>
    <_>
      <internalNodes>
        0 -1 114148 1.0322615504264832e-02</internalNodes>
      <leafValues>
        -3.9881932735443115e-01 3.1955850124359131e-01</leafValues></_>
    <_>
      <internalNodes>
        0 -1 159674 -1.2562943156808615e-03</internalNodes>
      <leafValues>
        8.3051019906997681e-01 -1.6226531565189362e-01</leafValues></_>
    <_>
      <internalNodes>
        0 -1 12274 -3.3585112541913986e-03</internalNodes>
      <leafValues>
        3.5938489437103271e-01 -3.0452772974967957e-01</leafValues></_>
    <_>
      <internalNodes>
        0 -1 13238 -1.5530610084533691e-01</internalNodes>
      <leafValues>
        -9.2514806985855103e-01 1.3046681880950928e-01</leafValues></_>
    <_>
      <internalNodes>
        0 -1 129491 -2.1673047915101051e-02</internalNodes>
      <leafValues>
        -8.5899800062179565e-01 1.1906937509775162e-01</leafValues></_>
    <_>
      <internalNodes>
        0 -1 162335 -6.1525561613962054e-04</internalNodes>
      <leafValues>
        -5.6471675634384155e-01 1.2586230039596558e-01</leafValues></_>
    <_>
      <internalNodes>
        0 -1 4614 -4.5304179191589355e-02</internalNodes>
      <leafValues>
        1.6351985931396484e-01 -5.2384841442108154e-01</leafValues></_>
    <_>
      <internalNodes>
        0 -1 70961 -8.3574727177619934e-03</internalNodes>
      <leafValues>
        -7.0403480529785156e-01 1.1858447641134262e-01</leafValues></_>
    <_>
      <internalNodes>
        0 -1 121334 -3.1982467044144869e-04</internalNodes>
      <leafValues>
        -6.1477613449096680e-01 1.2254496663808823e-01</leafValues></_>
    <_>
      <internalNodes>
        0 -1 143997 -2.4361584335565567e-02</internalNodes>
      <leafValues>
        2.3937794566154480e-01 -3.9001595973968506e-01</leafValues></_>
    <_>
      <internalNodes>
        0 -1 25611 -3.4683002158999443e-03</internalNodes>
      <leafValues>
        -2.2388106584548950e-01 4.2060273885726929e-01</leafValues></_>
    <_>
      <internalNodes>
        0 -1 139138 8.0752400681376457e-03</internalNodes>
      <leafValues>
        -2.0675478875637054e-01 4.7369867563247681e-01</leafValues></_>
    <_>
      <internalNodes>
        0 -1 89920 -5.0850724801421165e-03</internalNodes>
      <leafValues>
        2.7067074179649353e-01 -3.1109067797660828e-01</leafValues></_>
    <_>
      <internalNodes>
        0 -1 1428 3.2674107700586319e-02</internalNodes>
      <leafValues>
        -1.1348552256822586e-01 7.4882668256759644e-01</leafValues></_>
    <_>
      <internalNodes>
        0 -1 13715 -1.4999560080468655e-02</internalNodes>
      <leafValues>
        -2.8038984537124634e-01 3.3482265472412109e-01</leafValues></_>
    <_>
      <internalNodes>
        0 -1 4748 -2.8160283342003822e-02</internalNodes>
      <leafValues>
        1.7617039382457733e-01 -4.7272071242332458e-01</leafValues></_>
    <_>
      <internalNodes>
        0 -1 127207 4.2997887358069420e-03</internalNodes>
      <leafValues>
        -1.8299844861030579e-01 5.3248745203018188e-01</leafValues></_>
    <_>
      <internalNodes>
        0 -1 146079 -2.4320082738995552e-02</internalNodes>
      <leafValues>
        4.9327251315116882e-01 -1.8835382163524628e-01</leafValues></_></weakClassifiers></stage9>
</opencv_storage>
