<?xml version="1.0"?>
<opencv_storage>
<stage3>
  <maxWeakCount>12</maxWeakCount>
  <stageThreshold>-6.6233670711517334e-01</stageThreshold>
  <weakClassifiers>
    <_>
      <internalNodes>
        0 -1 93442 -6.7868866026401520e-02</internalNodes>
      <leafValues>
        -3.3493974804878235e-01 6.8662422895431519e-01</leafValues></_>
    <_>
      <internalNodes>
        0 -1 52595 8.6675137281417847e-02</internalNodes>
      <leafValues>
        -6.2177628278732300e-01 4.9709567427635193e-01</leafValues></_>
    <_>
      <internalNodes>
        0 -1 121732 -9.4832852482795715e-03</internalNodes>
      <leafValues>
        6.8438977003097534e-01 -3.9578413963317871e-01</leafValues></_>
    <_>
      <internalNodes>
        0 -1 80434 -5.9308554045855999e-03</internalNodes>
      <leafValues>
        6.8686252832412720e-01 -3.3350899815559387e-01</leafValues></_>
    <_>
      <internalNodes>
        0 -1 34563 -6.2876464799046516e-03</internalNodes>
      <leafValues>
        5.9731853008270264e-01 -4.4954308867454529e-01</leafValues></_>
    <_>
      <internalNodes>
        0 -1 159331 8.0170277506113052e-03</internalNodes>
      <leafValues>
        -3.8204199075698853e-01 6.3414996862411499e-01</leafValues></_>
    <_>
      <internalNodes>
        0 -1 9774 -4.3832100927829742e-02</internalNodes>
      <leafValues>
        -7.5922805070877075e-01 3.0526247620582581e-01</leafValues></_>
    <_>
      <internalNodes>
        0 -1 21745 -1.1354953981935978e-02</internalNodes>
      <leafValues>
        2.9241085052490234e-01 -8.6229437589645386e-01</leafValues></_>
    <_>
      <internalNodes>
        0 -1 6496 -6.0420073568820953e-02</internalNodes>
      <leafValues>
        -8.8218462467193604e-01 1.9347853958606720e-01</leafValues></_>
    <_>
      <internalNodes>
        0 -1 98978 -8.3932355046272278e-03</internalNodes>
      <leafValues>
        7.3231816291809082e-01 -3.3957195281982422e-01</leafValues></_>
    <_>
      <internalNodes>
        0 -1 44182 -4.8637911677360535e-02</internalNodes>
      <leafValues>
        -9.0859913825988770e-01 2.5711402297019958e-01</leafValues></_>
    <_>
      <internalNodes>
        0 -1 33655 6.4293265342712402e-02</internalNodes>
      <leafValues>
        2.4990691244602203e-01 -9.0568518638610840e-01</leafValues></_></weakClassifiers></stage3>
</opencv_storage>
